<?xml version="1.0"?>
<opencv_storage>
<cascade>
  <stageType>BOOST</stageType>
  <featureType>HAAR</featureType>
  <height>24</height>
  <width>24</width>
  <stageParams>
    <boostType>GAB</boostType>
    <minHitRate>9.9900001287460327e-01</minHitRate>
    <maxFalseAlarm>4.0000000596046448e-01</maxFalseAlarm>
    <weightTrimRate>9.4999999999999996e-01</weightTrimRate>
    <maxDepth>1</maxDepth>
    <maxWeakCount>100</maxWeakCount></stageParams>
  <featureParams>
    <maxCatCount>0</maxCatCount>
    <featSize>1</featSize>
    <mode>BASIC</mode></featureParams>
  <stageNum>9</stageNum>
  <stages>
    <!-- stage 0 -->
    <_>
      <maxWeakCount>6</maxWeakCount>
      <stageThreshold>-1.4472134113311768e+00</stageThreshold>
      <weakClassifiers>
        <_>
          <internalNodes>
            0 -1 24 6.7067041993141174e-02</internalNodes>
          <leafValues>
            -8.7786257266998291e-01 3.8461539149284363e-01</leafValues></_>
        <_>
          <internalNodes>
            0 -1 44 -4.3648880720138550e-01</internalNodes>
          <leafValues>
            -9.6148419380187988e-01 5.8132596313953400e-03</leafValues></_>
        <_>
          <internalNodes>
            0 -1 0 1.5331367962062359e-02</internalNodes>
          <leafValues>
            -6.3624399900436401e-01 2.4592563509941101e-01</leafValues></_>
        <_>
          <internalNodes>
            0 -1 23 -7.8770536929368973e-03</internalNodes>
          <leafValues>
            -9.5669865608215332e-01 2.0264427363872528e-01</leafValues></_>
        <_>
          <internalNodes>
            0 -1 35 -4.7576494514942169e-02</internalNodes>
          <leafValues>
            5.1597690582275391e-01 -3.7622764706611633e-01</leafValues></_>
        <_>
          <internalNodes>
            0 -1 21 -2.9663095483556390e-04</internalNodes>
          <leafValues>
            3.1979113817214966e-01 -5.0904059410095215e-01</leafValues></_></weakClassifiers></_>
    <!-- stage 1 -->
    <_>
      <maxWeakCount>6</maxWeakCount>
      <stageThreshold>-1.5715141296386719e+00</stageThreshold>
      <weakClassifiers>
        <_>
          <internalNodes>
            0 -1 36 1.2451481074094772e-02</internalNodes>
          <leafValues>
            -8.6116319894790649e-01 5.2941179275512695e-01</leafValues></_>
        <_>
          <internalNodes>
            0 -1 41 1.8792117480188608e-03</internalNodes>
          <leafValues>
            -5.7523864507675171e-01 3.1350511312484741e-01</leafValues></_>
        <_>
          <internalNodes>
            0 -1 50 5.4187674075365067e-02</internalNodes>
          <leafValues>
            1.7846077680587769e-01 -9.0401816368103027e-01</leafValues></_>
        <_>
          <internalNodes>
            0 -1 56 -6.0659050941467285e-02</internalNodes>
          <leafValues>
            -7.9219549894332886e-01 1.8533270061016083e-01</leafValues></_>
        <_>
          <internalNodes>
            0 -1 10 1.6101457877084613e-03</internalNodes>
          <leafValues>
            -2.4875921010971069e-01 6.9407665729522705e-01</leafValues></_>
        <_>
          <internalNodes>
            0 -1 65 1.4620905742049217e-02</internalNodes>
          <leafValues>
            -2.5014653801918030e-01 5.4827827215194702e-01</leafValues></_></weakClassifiers></_>
    <!-- stage 2 -->
    <_>
      <maxWeakCount>8</maxWeakCount>
      <stageThreshold>-1.6114530563354492e+00</stageThreshold>
      <weakClassifiers>
        <_>
          <internalNodes>
            0 -1 75 3.4813180565834045e-02</internalNodes>
          <leafValues>
            -8.4543764591217041e-01 3.0769231915473938e-01</leafValues></_>
        <_>
          <internalNodes>
            0 -1 62 1.5608482062816620e-03</internalNodes>
          <leafValues>
            -5.6049746274948120e-01 3.3163815736770630e-01</leafValues></_>
        <_>
          <internalNodes>
            0 -1 82 -2.8521984815597534e-02</internalNodes>
          <leafValues>
            1.5095809102058411e-01 -7.9296541213989258e-01</leafValues></_>
        <_>
          <internalNodes>
            0 -1 28 1.2052906677126884e-02</internalNodes>
          <leafValues>
            -2.4132856726646423e-01 6.4557224512100220e-01</leafValues></_>
        <_>
          <internalNodes>
            0 -1 69 2.1608326584100723e-02</internalNodes>
          <leafValues>
            -1.9692306220531464e-01 6.3555622100830078e-01</leafValues></_>
        <_>
          <internalNodes>
            0 -1 14 -1.3818176463246346e-02</internalNodes>
          <leafValues>
            5.7888919115066528e-01 -1.8079009652137756e-01</leafValues></_>
        <_>
          <internalNodes>
            0 -1 16 2.3252782411873341e-03</internalNodes>
          <leafValues>
            -1.7407995462417603e-01 5.8457332849502563e-01</leafValues></_>
        <_>
          <internalNodes>
            0 -1 46 1.6382895410060883e-02</internalNodes>
          <leafValues>
            -2.1056342124938965e-01 5.7179504632949829e-01</leafValues></_></weakClassifiers></_>
    <!-- stage 3 -->
    <_>
      <maxWeakCount>11</maxWeakCount>
      <stageThreshold>-1.3585774898529053e+00</stageThreshold>
      <weakClassifiers>
        <_>
          <internalNodes>
            0 -1 25 -7.5996806845068932e-04</internalNodes>
          <leafValues>
            -8.3455884456634521e-01 6.6666668653488159e-01</leafValues></_>
        <_>
          <internalNodes>
            0 -1 2 3.6662459373474121e-02</internalNodes>
          <leafValues>
            -4.4244480133056641e-01 5.5752193927764893e-01</leafValues></_>
        <_>
          <internalNodes>
            0 -1 8 -3.8105692714452744e-02</internalNodes>
          <leafValues>
            2.5285306572914124e-01 -3.9174395799636841e-01</leafValues></_>
        <_>
          <internalNodes>
            0 -1 37 -3.4781258553266525e-02</internalNodes>
          <leafValues>
            2.5183165073394775e-01 -3.7422949075698853e-01</leafValues></_>
        <_>
          <internalNodes>
            0 -1 81 -5.1464145071804523e-03</internalNodes>
          <leafValues>
            4.1495093703269958e-01 -2.4632154405117035e-01</leafValues></_>
        <_>
          <internalNodes>
            0 -1 29 -2.6314804563298821e-04</internalNodes>
          <leafValues>
            4.3724888563156128e-01 -2.1660812199115753e-01</leafValues></_>
        <_>
          <internalNodes>
            0 -1 4 -8.2185566425323486e-03</internalNodes>
          <leafValues>
            -5.4972547292709351e-01 1.8229691684246063e-01</leafValues></_>
        <_>
          <internalNodes>
            0 -1 27 3.2763257622718811e-03</internalNodes>
          <leafValues>
            -3.2533740997314453e-01 3.3944800496101379e-01</leafValues></_>
        <_>
          <internalNodes>
            0 -1 54 -6.9298341870307922e-02</internalNodes>
          <leafValues>
            7.5188797712326050e-01 -1.2129452079534531e-01</leafValues></_>
        <_>
          <internalNodes>
            0 -1 5 -1.1147746117785573e-03</internalNodes>
          <leafValues>
            5.2406907081604004e-01 -1.8102613091468811e-01</leafValues></_>
        <_>
          <internalNodes>
            0 -1 77 9.2812851071357727e-03</internalNodes>
          <leafValues>
            -2.6107481122016907e-01 4.3282592296600342e-01</leafValues></_></weakClassifiers></_>
    <!-- stage 4 -->
    <_>
      <maxWeakCount>14</maxWeakCount>
      <stageThreshold>-1.4814957380294800e+00</stageThreshold>
      <weakClassifiers>
        <_>
          <internalNodes>
            0 -1 52 1.1433787643909454e-01</internalNodes>
          <leafValues>
            -8.3440661430358887e-01 5.3846156597137451e-01</leafValues></_>
        <_>
          <internalNodes>
            0 -1 40 1.7573535442352295e-02</internalNodes>
          <leafValues>
            -4.8846229910850525e-01 3.3800563216209412e-01</leafValues></_>
        <_>
          <internalNodes>
            0 -1 43 -2.9704786837100983e-02</internalNodes>
          <leafValues>
            5.5147963762283325e-01 -1.8399772047996521e-01</leafValues></_>
        <_>
          <internalNodes>
            0 -1 74 9.2713336925953627e-04</internalNodes>
          <leafValues>
            1.1761993914842606e-01 -8.4247601032257080e-01</leafValues></_>
        <_>
          <internalNodes>
            0 -1 73 3.2072581816464663e-03</internalNodes>
          <leafValues>
            -1.8236945569515228e-01 5.1275134086608887e-01</leafValues></_>
        <_>
          <internalNodes>
            0 -1 79 1.3996846973896027e-03</internalNodes>
          <leafValues>
            -1.8801239132881165e-01 5.7282531261444092e-01</leafValues></_>
        <_>
          <internalNodes>
            0 -1 13 6.4561784267425537e-02</internalNodes>
          <leafValues>
            -1.7653167247772217e-01 5.2206629514694214e-01</leafValues></_>
        <_>
          <internalNodes>
            0 -1 57 -2.2548180073499680e-02</internalNodes>
          <leafValues>
            -9.5945644378662109e-01 1.1324156820774078e-01</leafValues></_>
        <_>
          <internalNodes>
            0 -1 31 9.0176304802298546e-03</internalNodes>
          <leafValues>
            -1.9190323352813721e-01 5.4656684398651123e-01</leafValues></_>
        <_>
          <internalNodes>
            0 -1 12 -2.0135133527219296e-03</internalNodes>
          <leafValues>
            3.8859036564826965e-01 -2.9717111587524414e-01</leafValues></_>
        <_>
          <internalNodes>
            0 -1 53 -4.0321070700883865e-03</internalNodes>
          <leafValues>
            5.7325279712677002e-01 -2.0566707849502563e-01</leafValues></_>
        <_>
          <internalNodes>
            0 -1 72 3.0539259314537048e-02</internalNodes>
          <leafValues>
            -1.3742795586585999e-01 6.2700015306472778e-01</leafValues></_>
        <_>
          <internalNodes>
            0 -1 63 2.2580856457352638e-03</internalNodes>
          <leafValues>
            1.2159941345453262e-01 -8.4100359678268433e-01</leafValues></_>
        <_>
          <internalNodes>
            0 -1 19 9.3267747433856130e-04</internalNodes>
          <leafValues>
            -2.4996626377105713e-01 3.6623144149780273e-01</leafValues></_></weakClassifiers></_>
    <!-- stage 5 -->
    <_>
      <maxWeakCount>10</maxWeakCount>
      <stageThreshold>-1.4832035303115845e+00</stageThreshold>
      <weakClassifiers>
        <_>
          <internalNodes>
            0 -1 1 1.2783898040652275e-02</internalNodes>
          <leafValues>
            -8.4484392404556274e-01 -1.6279070079326630e-01</leafValues></_>
        <_>
          <internalNodes>
            0 -1 45 -6.8109340965747833e-02</internalNodes>
          <leafValues>
            2.4994742870330811e-01 -4.5201191306114197e-01</leafValues></_>
        <_>
          <internalNodes>
            0 -1 58 -2.5201973039656878e-04</internalNodes>
          <leafValues>
            -6.0742104053497314e-01 1.2096128612756729e-01</leafValues></_>
        <_>
          <internalNodes>
            0 -1 86 -1.3353175745578483e-05</internalNodes>
          <leafValues>
            2.4230062961578369e-01 -3.2337811589241028e-01</leafValues></_>
        <_>
          <internalNodes>
            0 -1 80 -8.1062223762273788e-03</internalNodes>
          <leafValues>
            -8.8929957151412964e-01 1.1826466768980026e-01</leafValues></_>
        <_>
          <internalNodes>
            0 -1 9 -2.9109115712344646e-03</internalNodes>
          <leafValues>
            -4.8692610859870911e-01 1.4348538219928741e-01</leafValues></_>
        <_>
          <internalNodes>
            0 -1 15 5.7998519390821457e-02</internalNodes>
          <leafValues>
            8.9815847575664520e-02 -6.8107712268829346e-01</leafValues></_>
        <_>
          <internalNodes>
            0 -1 20 -1.3180577196180820e-02</internalNodes>
          <leafValues>
            4.0868410468101501e-01 -1.8983902037143707e-01</leafValues></_>
        <_>
          <internalNodes>
            0 -1 39 -3.0320033431053162e-02</internalNodes>
          <leafValues>
            4.4371926784515381e-01 -1.7519806325435638e-01</leafValues></_>
        <_>
          <internalNodes>
            0 -1 38 3.4001762978732586e-03</internalNodes>
          <leafValues>
            9.4273053109645844e-02 -8.8899642229080200e-01</leafValues></_></weakClassifiers></_>
    <!-- stage 6 -->
    <_>
      <maxWeakCount>11</maxWeakCount>
      <stageThreshold>-1.7141104936599731e+00</stageThreshold>
      <weakClassifiers>
        <_>
          <internalNodes>
            0 -1 55 6.2274567782878876e-02</internalNodes>
          <leafValues>
            -8.4044528007507324e-01 2.7272728085517883e-01</leafValues></_>
        <_>
          <internalNodes>
            0 -1 60 5.7870633900165558e-02</internalNodes>
          <leafValues>
            -6.0648036003112793e-01 1.6581323742866516e-01</leafValues></_>
        <_>
          <internalNodes>
            0 -1 78 1.8292145803570747e-02</internalNodes>
          <leafValues>
            9.6518889069557190e-02 -9.5270252227783203e-01</leafValues></_>
        <_>
          <internalNodes>
            0 -1 61 -3.4176871180534363e-02</internalNodes>
          <leafValues>
            6.7312180995941162e-01 -1.9828115403652191e-01</leafValues></_>
        <_>
          <internalNodes>
            0 -1 42 3.3454492688179016e-02</internalNodes>
          <leafValues>
            1.8874195218086243e-01 -7.2939449548721313e-01</leafValues></_>
        <_>
          <internalNodes>
            0 -1 58 4.0870415978133678e-04</internalNodes>
          <leafValues>
            1.8045486509799957e-01 -4.5181819796562195e-01</leafValues></_>
        <_>
          <internalNodes>
            0 -1 47 7.7968344092369080e-02</internalNodes>
          <leafValues>
            -1.6238513588905334e-01 5.2835494279861450e-01</leafValues></_>
        <_>
          <internalNodes>
            0 -1 48 -7.2963116690516472e-04</internalNodes>
          <leafValues>
            -7.5704491138458252e-01 1.2455757707357407e-01</leafValues></_>
        <_>
          <internalNodes>
            0 -1 17 1.1668561492115259e-03</internalNodes>
          <leafValues>
            -2.3752488195896149e-01 3.5966676473617554e-01</leafValues></_>
        <_>
          <internalNodes>
            0 -1 33 -1.5336027368903160e-02</internalNodes>
          <leafValues>
            8.7755048274993896e-01 -8.7537460029125214e-02</leafValues></_>
        <_>
          <internalNodes>
            0 -1 64 1.3817087747156620e-03</internalNodes>
          <leafValues>
            1.4027975499629974e-01 -6.5427154302597046e-01</leafValues></_></weakClassifiers></_>
    <!-- stage 7 -->
    <_>
      <maxWeakCount>13</maxWeakCount>
      <stageThreshold>-1.4600020647048950e+00</stageThreshold>
      <weakClassifiers>
        <_>
          <internalNodes>
            0 -1 32 -6.5088095143437386e-03</internalNodes>
          <leafValues>
            1.3043478131294250e-01 -8.3844012022018433e-01</leafValues></_>
        <_>
          <internalNodes>
            0 -1 70 -6.7995977587997913e-03</internalNodes>
          <leafValues>
            2.0776183903217316e-01 -4.8214283585548401e-01</leafValues></_>
        <_>
          <internalNodes>
            0 -1 84 -2.3953107302077115e-04</internalNodes>
          <leafValues>
            3.3089181780815125e-01 -2.7852648496627808e-01</leafValues></_>
        <_>
          <internalNodes>
            0 -1 66 2.3578726686537266e-03</internalNodes>
          <leafValues>
            -1.3592821359634399e-01 5.6247603893280029e-01</leafValues></_>
        <_>
          <internalNodes>
            0 -1 49 -4.0122419595718384e-02</internalNodes>
          <leafValues>
            7.7485996484756470e-01 -8.5347838699817657e-02</leafValues></_>
        <_>
          <internalNodes>
            0 -1 11 -1.4317709207534790e-01</internalNodes>
          <leafValues>
            -1. 9.3717746436595917e-02</leafValues></_>
        <_>
          <internalNodes>
            0 -1 85 -3.4647714346647263e-03</internalNodes>
          <leafValues>
            4.2269042134284973e-01 -1.7620268464088440e-01</leafValues></_>
        <_>
          <internalNodes>
            0 -1 83 -5.6057493202388287e-03</internalNodes>
          <leafValues>
            -8.8110589981079102e-01 9.5076069235801697e-02</leafValues></_>
        <_>
          <internalNodes>
            0 -1 76 -7.0120405871421099e-04</internalNodes>
          <leafValues>
            3.6070734262466431e-01 -2.1776361763477325e-01</leafValues></_>
        <_>
          <internalNodes>
            0 -1 18 -7.2108004242181778e-03</internalNodes>
          <leafValues>
            5.3054511547088623e-01 -1.4226847887039185e-01</leafValues></_>
        <_>
          <internalNodes>
            0 -1 67 -1.3354359194636345e-02</internalNodes>
          <leafValues>
            4.5673358440399170e-01 -1.5291102230548859e-01</leafValues></_>
        <_>
          <internalNodes>
            0 -1 59 5.7479135692119598e-02</internalNodes>
          <leafValues>
            -1.8964970111846924e-01 4.3066158890724182e-01</leafValues></_>
        <_>
          <internalNodes>
            0 -1 7 -8.3597488701343536e-03</internalNodes>
          <leafValues>
            5.2542132139205933e-01 -1.3750416040420532e-01</leafValues></_></weakClassifiers></_>
    <!-- stage 8 -->
    <_>
      <maxWeakCount>12</maxWeakCount>
      <stageThreshold>-1.5204535722732544e+00</stageThreshold>
      <weakClassifiers>
        <_>
          <internalNodes>
            0 -1 30 5.4236531257629395e-02</internalNodes>
          <leafValues>
            -8.2648402452468872e-01 1.</leafValues></_>
        <_>
          <internalNodes>
            0 -1 3 6.8128141574561596e-03</internalNodes>
          <leafValues>
            -4.6122440695762634e-01 1.3255223631858826e-01</leafValues></_>
        <_>
          <internalNodes>
            0 -1 71 1.0267467005178332e-03</internalNodes>
          <leafValues>
            5.3358044475317001e-02 -9.1599261760711670e-01</leafValues></_>
        <_>
          <internalNodes>
            0 -1 26 -2.9121944680809975e-03</internalNodes>
          <leafValues>
            5.6962156295776367e-01 -1.1575175821781158e-01</leafValues></_>
        <_>
          <internalNodes>
            0 -1 34 -9.5522012561559677e-03</internalNodes>
          <leafValues>
            4.6970233321189880e-01 -1.5136896073818207e-01</leafValues></_>
        <_>
          <internalNodes>
            0 -1 6 -5.8486253023147583e-02</internalNodes>
          <leafValues>
            4.0614062547683716e-01 -1.8077038228511810e-01</leafValues></_>
        <_>
          <internalNodes>
            0 -1 22 -2.4111390113830566e-01</internalNodes>
          <leafValues>
            -1. 8.0917619168758392e-02</leafValues></_>
        <_>
          <internalNodes>
            0 -1 89 4.6421573497354984e-03</internalNodes>
          <leafValues>
            8.7955869734287262e-02 -7.6114815473556519e-01</leafValues></_>
        <_>
          <internalNodes>
            0 -1 51 2.8716623783111572e-03</internalNodes>
          <leafValues>
            -2.4732743203639984e-01 2.8199890255928040e-01</leafValues></_>
        <_>
          <internalNodes>
            0 -1 87 1.5141880139708519e-03</internalNodes>
          <leafValues>
            1.1389490962028503e-01 -6.2416845560073853e-01</leafValues></_>
        <_>
          <internalNodes>
            0 -1 88 -9.8197627812623978e-03</internalNodes>
          <leafValues>
            8.9510038495063782e-02 -6.8185240030288696e-01</leafValues></_>
        <_>
          <internalNodes>
            0 -1 68 -1.7850369215011597e-01</internalNodes>
          <leafValues>
            -2.0866033434867859e-01 4.4863256812095642e-01</leafValues></_></weakClassifiers></_></stages>
  <features>
    <_>
      <rects>
        <_>
          0 1 14 8 -1.</_>
        <_>
          7 1 7 8 2.</_></rects>
      <tilted>0</tilted></_>
    <_>
      <rects>
        <_>
          0 2 2 14 -1.</_>
        <_>
          0 2 1 7 2.</_>
        <_>
          1 9 1 7 2.</_></rects>
      <tilted>0</tilted></_>
    <_>
      <rects>
        <_>
          0 5 4 14 -1.</_>
        <_>
          2 5 2 14 2.</_></rects>
      <tilted>0</tilted></_>
    <_>
      <rects>
        <_>
          0 6 2 14 -1.</_>
        <_>
          1 6 1 14 2.</_></rects>
      <tilted>0</tilted></_>
    <_>
      <rects>
        <_>
          0 7 6 8 -1.</_>
        <_>
          0 11 6 4 2.</_></rects>
      <tilted>0</tilted></_>
    <_>
      <rects>
        <_>
          0 9 2 4 -1.</_>
        <_>
          0 9 1 2 2.</_>
        <_>
          1 11 1 2 2.</_></rects>
      <tilted>0</tilted></_>
    <_>
      <rects>
        <_>
          0 9 23 8 -1.</_>
        <_>
          0 13 23 4 2.</_></rects>
      <tilted>0</tilted></_>
    <_>
      <rects>
        <_>
          0 10 2 14 -1.</_>
        <_>
          1 10 1 14 2.</_></rects>
      <tilted>0</tilted></_>
    <_>
      <rects>
        <_>
          0 11 23 10 -1.</_>
        <_>
          0 16 23 5 2.</_></rects>
      <tilted>0</tilted></_>
    <_>
      <rects>
        <_>
          1 0 8 6 -1.</_>
        <_>
          5 0 4 6 2.</_></rects>
      <tilted>0</tilted></_>
    <_>
      <rects>
        <_>
          1 1 4 2 -1.</_>
        <_>
          1 1 2 1 2.</_>
        <_>
          3 2 2 1 2.</_></rects>
      <tilted>0</tilted></_>
    <_>
      <rects>
        <_>
          1 1 22 12 -1.</_>
        <_>
          1 1 11 6 2.</_>
        <_>
          12 7 11 6 2.</_></rects>
      <tilted>0</tilted></_>
    <_>
      <rects>
        <_>
          1 10 2 14 -1.</_>
        <_>
          1 10 1 7 2.</_>
        <_>
          2 17 1 7 2.</_></rects>
      <tilted>0</tilted></_>
    <_>
      <rects>
        <_>
          1 10 19 8 -1.</_>
        <_>
          1 14 19 4 2.</_></rects>
      <tilted>0</tilted></_>
    <_>
      <rects>
        <_>
          2 3 8 6 -1.</_>
        <_>
          2 3 4 3 2.</_>
        <_>
          6 6 4 3 2.</_></rects>
      <tilted>0</tilted></_>
    <_>
      <rects>
        <_>
          2 4 22 8 -1.</_>
        <_>
          2 4 11 4 2.</_>
        <_>
          13 8 11 4 2.</_></rects>
      <tilted>0</tilted></_>
    <_>
      <rects>
        <_>
          2 5 8 2 -1.</_>
        <_>
          2 5 4 1 2.</_>
        <_>
          6 6 4 1 2.</_></rects>
      <tilted>0</tilted></_>
    <_>
      <rects>
        <_>
          3 0 2 4 -1.</_>
        <_>
          3 0 1 2 2.</_>
        <_>
          4 2 1 2 2.</_></rects>
      <tilted>0</tilted></_>
    <_>
      <rects>
        <_>
          3 0 16 2 -1.</_>
        <_>
          3 1 16 1 2.</_></rects>
      <tilted>0</tilted></_>
    <_>
      <rects>
        <_>
          3 5 2 6 -1.</_>
        <_>
          3 5 1 3 2.</_>
        <_>
          4 8 1 3 2.</_></rects>
      <tilted>0</tilted></_>
    <_>
      <rects>
        <_>
          3 5 7 4 -1.</_>
        <_>
          3 7 7 2 2.</_></rects>
      <tilted>0</tilted></_>
    <_>
      <rects>
        <_>
          3 5 10 2 -1.</_>
        <_>
          3 6 10 1 2.</_></rects>
      <tilted>0</tilted></_>
    <_>
      <rects>
        <_>
          3 6 14 16 -1.</_>
        <_>
          3 14 14 8 2.</_></rects>
      <tilted>0</tilted></_>
    <_>
      <rects>
        <_>
          3 9 3 1 -1.</_>
        <_>
          4 9 1 1 2.</_></rects>
      <tilted>0</tilted></_>
    <_>
      <rects>
        <_>
          3 9 18 6 -1.</_>
        <_>
          3 12 18 3 2.</_></rects>
      <tilted>0</tilted></_>
    <_>
      <rects>
        <_>
          4 1 15 7 -1.</_>
        <_>
          9 1 5 7 2.</_></rects>
      <tilted>0</tilted></_>
    <_>
      <rects>
        <_>
          4 7 4 1 -1.</_>
        <_>
          6 7 2 1 2.</_></rects>
      <tilted>0</tilted></_>
    <_>
      <rects>
        <_>
          4 13 8 2 -1.</_>
        <_>
          8 13 4 2 2.</_></rects>
      <tilted>0</tilted></_>
    <_>
      <rects>
        <_>
          4 15 6 6 -1.</_>
        <_>
          4 15 3 3 2.</_>
        <_>
          7 18 3 3 2.</_></rects>
      <tilted>0</tilted></_>
    <_>
      <rects>
        <_>
          4 18 2 2 -1.</_>
        <_>
          4 18 1 1 2.</_>
        <_>
          5 19 1 1 2.</_></rects>
      <tilted>0</tilted></_>
    <_>
      <rects>
        <_>
          4 20 8 3 -1.</_>
        <_>
          8 20 4 3 2.</_></rects>
      <tilted>0</tilted></_>
    <_>
      <rects>
        <_>
          5 0 18 2 -1.</_>
        <_>
          5 1 18 1 2.</_></rects>
      <tilted>0</tilted></_>
    <_>
      <rects>
        <_>
          5 7 1 4 -1.</_>
        <_>
          5 9 1 2 2.</_></rects>
      <tilted>0</tilted></_>
    <_>
      <rects>
        <_>
          5 7 3 4 -1.</_>
        <_>
          5 9 3 2 2.</_></rects>
      <tilted>0</tilted></_>
    <_>
      <rects>
        <_>
          5 8 15 2 -1.</_>
        <_>
          5 9 15 1 2.</_></rects>
      <tilted>0</tilted></_>
    <_>
      <rects>
        <_>
          5 11 18 8 -1.</_>
        <_>
          5 15 18 4 2.</_></rects>
      <tilted>0</tilted></_>
    <_>
      <rects>
        <_>
          6 0 13 2 -1.</_>
        <_>
          6 1 13 1 2.</_></rects>
      <tilted>0</tilted></_>
    <_>
      <rects>
        <_>
          6 1 15 10 -1.</_>
        <_>
          6 6 15 5 2.</_></rects>
      <tilted>0</tilted></_>
    <_>
      <rects>
        <_>
          6 12 4 1 -1.</_>
        <_>
          8 12 2 1 2.</_></rects>
      <tilted>0</tilted></_>
    <_>
      <rects>
        <_>
          6 13 8 10 -1.</_>
        <_>
          6 13 4 5 2.</_>
        <_>
          10 18 4 5 2.</_></rects>
      <tilted>0</tilted></_>
    <_>
      <rects>
        <_>
          6 18 8 6 -1.</_>
        <_>
          6 18 4 3 2.</_>
        <_>
          10 21 4 3 2.</_></rects>
      <tilted>0</tilted></_>
    <_>
      <rects>
        <_>
          6 22 6 2 -1.</_>
        <_>
          6 22 3 1 2.</_>
        <_>
          9 23 3 1 2.</_></rects>
      <tilted>0</tilted></_>
    <_>
      <rects>
        <_>
          7 2 16 6 -1.</_>
        <_>
          7 2 8 3 2.</_>
        <_>
          15 5 8 3 2.</_></rects>
      <tilted>0</tilted></_>
    <_>
      <rects>
        <_>
          7 7 14 4 -1.</_>
        <_>
          7 9 14 2 2.</_></rects>
      <tilted>0</tilted></_>
    <_>
      <rects>
        <_>
          7 7 17 12 -1.</_>
        <_>
          7 11 17 4 2.</_></rects>
      <tilted>0</tilted></_>
    <_>
      <rects>
        <_>
          7 8 10 12 -1.</_>
        <_>
          7 8 5 6 2.</_>
        <_>
          12 14 5 6 2.</_></rects>
      <tilted>0</tilted></_>
    <_>
      <rects>
        <_>
          7 13 6 6 -1.</_>
        <_>
          10 13 3 6 2.</_></rects>
      <tilted>0</tilted></_>
    <_>
      <rects>
        <_>
          7 18 16 6 -1.</_>
        <_>
          15 18 8 6 2.</_></rects>
      <tilted>0</tilted></_>
    <_>
      <rects>
        <_>
          8 0 2 1 -1.</_>
        <_>
          9 0 1 1 2.</_></rects>
      <tilted>0</tilted></_>
    <_>
      <rects>
        <_>
          8 2 4 18 -1.</_>
        <_>
          8 2 2 9 2.</_>
        <_>
          10 11 2 9 2.</_></rects>
      <tilted>0</tilted></_>
    <_>
      <rects>
        <_>
          8 4 16 9 -1.</_>
        <_>
          16 4 8 9 2.</_></rects>
      <tilted>0</tilted></_>
    <_>
      <rects>
        <_>
          8 6 4 6 -1.</_>
        <_>
          8 6 2 3 2.</_>
        <_>
          10 9 2 3 2.</_></rects>
      <tilted>0</tilted></_>
    <_>
      <rects>
        <_>
          8 6 10 12 -1.</_>
        <_>
          8 6 5 6 2.</_>
        <_>
          13 12 5 6 2.</_></rects>
      <tilted>0</tilted></_>
    <_>
      <rects>
        <_>
          8 21 8 2 -1.</_>
        <_>
          8 21 4 1 2.</_>
        <_>
          12 22 4 1 2.</_></rects>
      <tilted>0</tilted></_>
    <_>
      <rects>
        <_>
          9 10 10 12 -1.</_>
        <_>
          9 10 5 6 2.</_>
        <_>
          14 16 5 6 2.</_></rects>
      <tilted>0</tilted></_>
    <_>
      <rects>
        <_>
          9 11 8 10 -1.</_>
        <_>
          9 11 4 5 2.</_>
        <_>
          13 16 4 5 2.</_></rects>
      <tilted>0</tilted></_>
    <_>
      <rects>
        <_>
          9 19 10 3 -1.</_>
        <_>
          9 20 10 1 2.</_></rects>
      <tilted>0</tilted></_>
    <_>
      <rects>
        <_>
          9 21 9 1 -1.</_>
        <_>
          12 21 3 1 2.</_></rects>
      <tilted>0</tilted></_>
    <_>
      <rects>
        <_>
          10 0 2 1 -1.</_>
        <_>
          11 0 1 1 2.</_></rects>
      <tilted>0</tilted></_>
    <_>
      <rects>
        <_>
          10 2 8 20 -1.</_>
        <_>
          10 2 4 10 2.</_>
        <_>
          14 12 4 10 2.</_></rects>
      <tilted>0</tilted></_>
    <_>
      <rects>
        <_>
          10 4 14 16 -1.</_>
        <_>
          10 4 7 8 2.</_>
        <_>
          17 12 7 8 2.</_></rects>
      <tilted>0</tilted></_>
    <_>
      <rects>
        <_>
          10 18 14 3 -1.</_>
        <_>
          17 18 7 3 2.</_></rects>
      <tilted>0</tilted></_>
    <_>
      <rects>
        <_>
          10 22 2 2 -1.</_>
        <_>
          10 23 2 1 2.</_></rects>
      <tilted>0</tilted></_>
    <_>
      <rects>
        <_>
          11 2 4 1 -1.</_>
        <_>
          13 2 2 1 2.</_></rects>
      <tilted>0</tilted></_>
    <_>
      <rects>
        <_>
          11 2 4 2 -1.</_>
        <_>
          11 2 2 1 2.</_>
        <_>
          13 3 2 1 2.</_></rects>
      <tilted>0</tilted></_>
    <_>
      <rects>
        <_>
          11 10 10 4 -1.</_>
        <_>
          11 12 10 2 2.</_></rects>
      <tilted>0</tilted></_>
    <_>
      <rects>
        <_>
          12 1 2 7 -1.</_>
        <_>
          13 1 1 7 2.</_></rects>
      <tilted>0</tilted></_>
    <_>
      <rects>
        <_>
          12 7 6 10 -1.</_>
        <_>
          12 7 3 5 2.</_>
        <_>
          15 12 3 5 2.</_></rects>
      <tilted>0</tilted></_>
    <_>
      <rects>
        <_>
          13 3 10 15 -1.</_>
        <_>
          13 8 10 5 2.</_></rects>
      <tilted>0</tilted></_>
    <_>
      <rects>
        <_>
          13 6 8 8 -1.</_>
        <_>
          13 6 4 4 2.</_>
        <_>
          17 10 4 4 2.</_></rects>
      <tilted>0</tilted></_>
    <_>
      <rects>
        <_>
          13 7 6 4 -1.</_>
        <_>
          13 7 3 2 2.</_>
        <_>
          16 9 3 2 2.</_></rects>
      <tilted>0</tilted></_>
    <_>
      <rects>
        <_>
          13 12 2 2 -1.</_>
        <_>
          13 12 1 1 2.</_>
        <_>
          14 13 1 1 2.</_></rects>
      <tilted>0</tilted></_>
    <_>
      <rects>
        <_>
          13 18 8 4 -1.</_>
        <_>
          17 18 4 4 2.</_></rects>
      <tilted>0</tilted></_>
    <_>
      <rects>
        <_>
          14 9 6 2 -1.</_>
        <_>
          14 10 6 1 2.</_></rects>
      <tilted>0</tilted></_>
    <_>
      <rects>
        <_>
          15 1 2 2 -1.</_>
        <_>
          16 1 1 2 2.</_></rects>
      <tilted>0</tilted></_>
    <_>
      <rects>
        <_>
          15 11 6 8 -1.</_>
        <_>
          15 11 3 4 2.</_>
        <_>
          18 15 3 4 2.</_></rects>
      <tilted>0</tilted></_>
    <_>
      <rects>
        <_>
          15 16 4 2 -1.</_>
        <_>
          15 16 2 1 2.</_>
        <_>
          17 17 2 1 2.</_></rects>
      <tilted>0</tilted></_>
    <_>
      <rects>
        <_>
          16 1 8 8 -1.</_>
        <_>
          16 1 4 4 2.</_>
        <_>
          20 5 4 4 2.</_></rects>
      <tilted>0</tilted></_>
    <_>
      <rects>
        <_>
          17 0 4 11 -1.</_>
        <_>
          19 0 2 11 2.</_></rects>
      <tilted>0</tilted></_>
    <_>
      <rects>
        <_>
          17 7 2 2 -1.</_>
        <_>
          17 8 2 1 2.</_></rects>
      <tilted>0</tilted></_>
    <_>
      <rects>
        <_>
          17 8 1 3 -1.</_>
        <_>
          17 9 1 1 2.</_></rects>
      <tilted>0</tilted></_>
    <_>
      <rects>
        <_>
          18 0 4 8 -1.</_>
        <_>
          18 0 2 4 2.</_>
        <_>
          20 4 2 4 2.</_></rects>
      <tilted>0</tilted></_>
    <_>
      <rects>
        <_>
          18 18 6 6 -1.</_>
        <_>
          18 20 6 2 2.</_></rects>
      <tilted>0</tilted></_>
    <_>
      <rects>
        <_>
          19 6 4 2 -1.</_>
        <_>
          21 6 2 2 2.</_></rects>
      <tilted>0</tilted></_>
    <_>
      <rects>
        <_>
          20 12 2 2 -1.</_>
        <_>
          20 12 1 1 2.</_>
        <_>
          21 13 1 1 2.</_></rects>
      <tilted>0</tilted></_>
    <_>
      <rects>
        <_>
          21 0 2 9 -1.</_>
        <_>
          22 0 1 9 2.</_></rects>
      <tilted>0</tilted></_>
    <_>
      <rects>
        <_>
          21 6 2 1 -1.</_>
        <_>
          22 6 1 1 2.</_></rects>
      <tilted>0</tilted></_>
    <_>
      <rects>
        <_>
          22 10 2 2 -1.</_>
        <_>
          22 11 2 1 2.</_></rects>
      <tilted>0</tilted></_>
    <_>
      <rects>
        <_>
          22 14 2 6 -1.</_>
        <_>
          22 16 2 2 2.</_></rects>
      <tilted>0</tilted></_>
    <_>
      <rects>
        <_>
          23 17 1 6 -1.</_>
        <_>
          23 20 1 3 2.</_></rects>
      <tilted>0</tilted></_></features></cascade>
</opencv_storage>
