<?xml version="1.0"?>
<opencv_storage>
<stage7>
  <maxWeakCount>13</maxWeakCount>
  <stageThreshold>-1.4600020647048950e+00</stageThreshold>
  <weakClassifiers>
    <_>
      <internalNodes>
        0 -1 65556 -6.5088095143437386e-03</internalNodes>
      <leafValues>
        1.3043478131294250e-01 -8.3844012022018433e-01</leafValues></_>
    <_>
      <internalNodes>
        0 -1 131004 -6.7995977587997913e-03</internalNodes>
      <leafValues>
        2.0776183903217316e-01 -4.8214283585548401e-01</leafValues></_>
    <_>
      <internalNodes>
        0 -1 159198 -2.3953107302077115e-04</internalNodes>
      <leafValues>
        3.3089181780815125e-01 -2.7852648496627808e-01</leafValues></_>
    <_>
      <internalNodes>
        0 -1 121926 2.3578726686537266e-03</internalNodes>
      <leafValues>
        -1.3592821359634399e-01 5.6247603893280029e-01</leafValues></_>
    <_>
      <internalNodes>
        0 -1 91342 -4.0122419595718384e-02</internalNodes>
      <leafValues>
        7.7485996484756470e-01 -8.5347838699817657e-02</leafValues></_>
    <_>
      <internalNodes>
        0 -1 15120 -1.4317709207534790e-01</internalNodes>
      <leafValues>
        -1. 9.3717746436595917e-02</leafValues></_>
    <_>
      <internalNodes>
        0 -1 159772 -3.4647714346647263e-03</internalNodes>
      <leafValues>
        4.2269042134284973e-01 -1.7620268464088440e-01</leafValues></_>
    <_>
      <internalNodes>
        0 -1 156329 -5.6057493202388287e-03</internalNodes>
      <leafValues>
        -8.8110589981079102e-01 9.5076069235801697e-02</leafValues></_>
    <_>
      <internalNodes>
        0 -1 143525 -7.0120405871421099e-04</internalNodes>
      <leafValues>
        3.6070734262466431e-01 -2.1776361763477325e-01</leafValues></_>
    <_>
      <internalNodes>
        0 -1 38808 -7.2108004242181778e-03</internalNodes>
      <leafValues>
        5.3054511547088623e-01 -1.4226847887039185e-01</leafValues></_>
    <_>
      <internalNodes>
        0 -1 124808 -1.3354359194636345e-02</internalNodes>
      <leafValues>
        4.5673358440399170e-01 -1.5291102230548859e-01</leafValues></_>
    <_>
      <internalNodes>
        0 -1 108275 5.7479135692119598e-02</internalNodes>
      <leafValues>
        -1.8964970111846924e-01 4.3066158890724182e-01</leafValues></_>
    <_>
      <internalNodes>
        0 -1 8852 -8.3597488701343536e-03</internalNodes>
      <leafValues>
        5.2542132139205933e-01 -1.3750416040420532e-01</leafValues></_></weakClassifiers></stage7>
</opencv_storage>
