<?xml version="1.0"?>
<opencv_storage>
<stage6>
  <maxWeakCount>11</maxWeakCount>
  <stageThreshold>-1.7141104936599731e+00</stageThreshold>
  <weakClassifiers>
    <_>
      <internalNodes>
        0 -1 104543 6.2274567782878876e-02</internalNodes>
      <leafValues>
        -8.4044528007507324e-01 2.7272728085517883e-01</leafValues></_>
    <_>
      <internalNodes>
        0 -1 109505 5.7870633900165558e-02</internalNodes>
      <leafValues>
        -6.0648036003112793e-01 1.6581323742866516e-01</leafValues></_>
    <_>
      <internalNodes>
        0 -1 148428 1.8292145803570747e-02</internalNodes>
      <leafValues>
        9.6518889069557190e-02 -9.5270252227783203e-01</leafValues></_>
    <_>
      <internalNodes>
        0 -1 114038 -3.4176871180534363e-02</internalNodes>
      <leafValues>
        6.7312180995941162e-01 -1.9828115403652191e-01</leafValues></_>
    <_>
      <internalNodes>
        0 -1 82679 3.3454492688179016e-02</internalNodes>
      <leafValues>
        1.8874195218086243e-01 -7.2939449548721313e-01</leafValues></_>
    <_>
      <internalNodes>
        0 -1 106800 4.0870415978133678e-04</internalNodes>
      <leafValues>
        1.8045486509799957e-01 -4.5181819796562195e-01</leafValues></_>
    <_>
      <internalNodes>
        0 -1 89382 7.7968344092369080e-02</internalNodes>
      <leafValues>
        -1.6238513588905334e-01 5.2835494279861450e-01</leafValues></_>
    <_>
      <internalNodes>
        0 -1 89824 -7.2963116690516472e-04</internalNodes>
      <leafValues>
        -7.5704491138458252e-01 1.2455757707357407e-01</leafValues></_>
    <_>
      <internalNodes>
        0 -1 37989 1.1668561492115259e-03</internalNodes>
      <leafValues>
        -2.3752488195896149e-01 3.5966676473617554e-01</leafValues></_>
    <_>
      <internalNodes>
        0 -1 65666 -1.5336027368903160e-02</internalNodes>
      <leafValues>
        8.7755048274993896e-01 -8.7537460029125214e-02</leafValues></_>
    <_>
      <internalNodes>
        0 -1 115591 1.3817087747156620e-03</internalNodes>
      <leafValues>
        1.4027975499629974e-01 -6.5427154302597046e-01</leafValues></_></weakClassifiers></stage6>
</opencv_storage>
