<?xml version="1.0"?>
<opencv_storage>
<stage0>
  <maxWeakCount>6</maxWeakCount>
  <stageThreshold>-1.4472134113311768e+00</stageThreshold>
  <weakClassifiers>
    <_>
      <internalNodes>
        0 -1 45498 6.7067041993141174e-02</internalNodes>
      <leafValues>
        -8.7786257266998291e-01 3.8461539149284363e-01</leafValues></_>
    <_>
      <internalNodes>
        0 -1 85770 -4.3648880720138550e-01</internalNodes>
      <leafValues>
        -9.6148419380187988e-01 5.8132596313953400e-03</leafValues></_>
    <_>
      <internalNodes>
        0 -1 1589 1.5331367962062359e-02</internalNodes>
      <leafValues>
        -6.3624399900436401e-01 2.4592563509941101e-01</leafValues></_>
    <_>
      <internalNodes>
        0 -1 44967 -7.8770536929368973e-03</internalNodes>
      <leafValues>
        -9.5669865608215332e-01 2.0264427363872528e-01</leafValues></_>
    <_>
      <internalNodes>
        0 -1 68106 -4.7576494514942169e-02</internalNodes>
      <leafValues>
        5.1597690582275391e-01 -3.7622764706611633e-01</leafValues></_>
    <_>
      <internalNodes>
        0 -1 42780 -2.9663095483556390e-04</internalNodes>
      <leafValues>
        3.1979113817214966e-01 -5.0904059410095215e-01</leafValues></_></weakClassifiers></stage0>
</opencv_storage>
